<?xml version="1.0"?>
<opencv_storage>
<cascade>
  <stageType>BOOST</stageType>
  <featureType>HAAR</featureType>
  <height>24</height>
  <width>24</width>
  <stageParams>
    <boostType>GAB</boostType>
    <minHitRate>9.9500000476837158e-01</minHitRate>
    <maxFalseAlarm>5.0000000000000000e-01</maxFalseAlarm>
    <weightTrimRate>9.4999998807907104e-01</weightTrimRate>
    <maxDepth>1</maxDepth>
    <maxWeakCount>100</maxWeakCount></stageParams>
  <featureParams>
    <maxCatCount>0</maxCatCount>
    <featSize>1</featSize>
    <mode>BASIC</mode></featureParams>
  <stageNum>12</stageNum>
  <stages>
    <!-- stage 0 -->
    <_>
      <maxWeakCount>4</maxWeakCount>
      <stageThreshold>-1.8716363906860352e+00</stageThreshold>
      <weakClassifiers>
        <_>
          <internalNodes>
            0 -1 0 5.9140580892562866e-01</internalNodes>
          <leafValues>
            -9.3980580568313599e-01 8.9999997615814209e-01</leafValues></_>
        <_>
          <internalNodes>
            0 -1 4 -9.7966089844703674e-02</internalNodes>
          <leafValues>
            6.8806844949722290e-01 -8.1792348623275757e-01</leafValues></_>
        <_>
          <internalNodes>
            0 -1 44 1.1403286457061768e-01</internalNodes>
          <leafValues>
            -5.2765023708343506e-01 7.5671172142028809e-01</leafValues></_>
        <_>
          <internalNodes>
            0 -1 33 -3.1402874737977982e-03</internalNodes>
          <leafValues>
            4.1374316811561584e-01 -7.4262672662734985e-01</leafValues></_></weakClassifiers></_>
    <!-- stage 1 -->
    <_>
      <maxWeakCount>4</maxWeakCount>
      <stageThreshold>-1.5348777770996094e+00</stageThreshold>
      <weakClassifiers>
        <_>
          <internalNodes>
            0 -1 1 5.1428085565567017e-01</internalNodes>
          <leafValues>
            -9.4157743453979492e-01 7.3913043737411499e-01</leafValues></_>
        <_>
          <internalNodes>
            0 -1 12 -1.7924973368644714e-01</internalNodes>
          <leafValues>
            5.7010883092880249e-01 -8.3092510700225830e-01</leafValues></_>
        <_>
          <internalNodes>
            0 -1 23 2.0107725635170937e-02</internalNodes>
          <leafValues>
            -5.5895680189132690e-01 7.3098975419998169e-01</leafValues></_>
        <_>
          <internalNodes>
            0 -1 26 2.1038070321083069e-02</internalNodes>
          <leafValues>
            -4.1220760345458984e-01 7.9658150672912598e-01</leafValues></_></weakClassifiers></_>
    <!-- stage 2 -->
    <_>
      <maxWeakCount>4</maxWeakCount>
      <stageThreshold>-1.4081521034240723e+00</stageThreshold>
      <weakClassifiers>
        <_>
          <internalNodes>
            0 -1 7 5.6817233562469482e-01</internalNodes>
          <leafValues>
            -9.2864030599594116e-01 1.</leafValues></_>
        <_>
          <internalNodes>
            0 -1 46 9.5850780606269836e-02</internalNodes>
          <leafValues>
            -7.8187495470046997e-01 3.5454988479614258e-01</leafValues></_>
        <_>
          <internalNodes>
            0 -1 53 2.4499578285031021e-04</internalNodes>
          <leafValues>
            1.1152674257755280e-01 -9.6107953786849976e-01</leafValues></_>
        <_>
          <internalNodes>
            0 -1 54 5.1441602408885956e-04</internalNodes>
          <leafValues>
            1.9083642959594727e-01 -9.2111605405807495e-01</leafValues></_></weakClassifiers></_>
    <!-- stage 3 -->
    <_>
      <maxWeakCount>5</maxWeakCount>
      <stageThreshold>-2.0466773509979248e+00</stageThreshold>
      <weakClassifiers>
        <_>
          <internalNodes>
            0 -1 14 6.2949973344802856e-01</internalNodes>
          <leafValues>
            -9.1930836439132690e-01 7.7777779102325439e-01</leafValues></_>
        <_>
          <internalNodes>
            0 -1 54 -3.3006211742758751e-04</internalNodes>
          <leafValues>
            -9.2104017734527588e-01 -1.1526612192392349e-01</leafValues></_>
        <_>
          <internalNodes>
            0 -1 53 -9.7826508863363415e-05</internalNodes>
          <leafValues>
            -7.0591247081756592e-01 2.6036843657493591e-01</leafValues></_>
        <_>
          <internalNodes>
            0 -1 48 -6.6649186192080379e-04</internalNodes>
          <leafValues>
            -8.9611995220184326e-01 2.4595694243907928e-01</leafValues></_>
        <_>
          <internalNodes>
            0 -1 10 -1.2482656165957451e-04</internalNodes>
          <leafValues>
            -8.5883730649948120e-01 2.5362682342529297e-01</leafValues></_></weakClassifiers></_>
    <!-- stage 4 -->
    <_>
      <maxWeakCount>6</maxWeakCount>
      <stageThreshold>-1.9689316749572754e+00</stageThreshold>
      <weakClassifiers>
        <_>
          <internalNodes>
            0 -1 29 4.9382969737052917e-02</internalNodes>
          <leafValues>
            -9.2968750000000000e-01 7.6923079788684845e-02</leafValues></_>
        <_>
          <internalNodes>
            0 -1 25 -5.2679959684610367e-02</internalNodes>
          <leafValues>
            8.5708272457122803e-01 -6.5498578548431396e-01</leafValues></_>
        <_>
          <internalNodes>
            0 -1 41 5.5922441184520721e-02</internalNodes>
          <leafValues>
            -5.4987221956253052e-01 4.3932363390922546e-01</leafValues></_>
        <_>
          <internalNodes>
            0 -1 32 5.7986786123365164e-04</internalNodes>
          <leafValues>
            -6.9044929742813110e-01 3.5161727666854858e-01</leafValues></_>
        <_>
          <internalNodes>
            0 -1 20 -2.5557218119502068e-02</internalNodes>
          <leafValues>
            6.3145834207534790e-01 -4.1986563801765442e-01</leafValues></_>
        <_>
          <internalNodes>
            0 -1 52 -1.7875029880087823e-04</internalNodes>
          <leafValues>
            -8.0514276027679443e-01 2.8673282265663147e-01</leafValues></_></weakClassifiers></_>
    <!-- stage 5 -->
    <_>
      <maxWeakCount>6</maxWeakCount>
      <stageThreshold>-1.8321081399917603e+00</stageThreshold>
      <weakClassifiers>
        <_>
          <internalNodes>
            0 -1 5 9.0468966960906982e-01</internalNodes>
          <leafValues>
            -9.1746640205383301e-01 7.5000000000000000e-01</leafValues></_>
        <_>
          <internalNodes>
            0 -1 17 -4.6972349286079407e-02</internalNodes>
          <leafValues>
            5.5956107378005981e-01 -6.6672641038894653e-01</leafValues></_>
        <_>
          <internalNodes>
            0 -1 16 -1.0834869462996721e-03</internalNodes>
          <leafValues>
            -8.9325332641601563e-01 1.1951100081205368e-01</leafValues></_>
        <_>
          <internalNodes>
            0 -1 56 -1.0420049075037241e-03</internalNodes>
          <leafValues>
            -8.3583402633666992e-01 1.7997576296329498e-01</leafValues></_>
        <_>
          <internalNodes>
            0 -1 31 -2.1100439131259918e-02</internalNodes>
          <leafValues>
            -7.1833980083465576e-01 2.5239917635917664e-01</leafValues></_>
        <_>
          <internalNodes>
            0 -1 8 3.3208774402737617e-04</internalNodes>
          <leafValues>
            2.1600857377052307e-01 -7.8815501928329468e-01</leafValues></_></weakClassifiers></_>
    <!-- stage 6 -->
    <_>
      <maxWeakCount>5</maxWeakCount>
      <stageThreshold>-1.8594954013824463e+00</stageThreshold>
      <weakClassifiers>
        <_>
          <internalNodes>
            0 -1 22 -7.3501184582710266e-02</internalNodes>
          <leafValues>
            1.7647059261798859e-01 -9.2255568504333496e-01</leafValues></_>
        <_>
          <internalNodes>
            0 -1 27 3.4158777445554733e-02</internalNodes>
          <leafValues>
            -7.4255996942520142e-01 8.8625401258468628e-03</leafValues></_>
        <_>
          <internalNodes>
            0 -1 49 1.2795031070709229e-03</internalNodes>
          <leafValues>
            -5.3488248586654663e-01 3.2496929168701172e-01</leafValues></_>
        <_>
          <internalNodes>
            0 -1 2 -5.5130858527263626e-05</internalNodes>
          <leafValues>
            -8.1049865484237671e-01 2.2552379965782166e-01</leafValues></_>
        <_>
          <internalNodes>
            0 -1 2 1.3293762458488345e-04</internalNodes>
          <leafValues>
            2.8609976172447205e-01 -6.3644367456436157e-01</leafValues></_></weakClassifiers></_>
    <!-- stage 7 -->
    <_>
      <maxWeakCount>6</maxWeakCount>
      <stageThreshold>-1.8716195821762085e+00</stageThreshold>
      <weakClassifiers>
        <_>
          <internalNodes>
            0 -1 35 -4.2766161262989044e-02</internalNodes>
          <leafValues>
            1. -9.1570883989334106e-01</leafValues></_>
        <_>
          <internalNodes>
            0 -1 39 -8.2034594379365444e-04</internalNodes>
          <leafValues>
            -3.9041710551828146e-03 -7.4358677864074707e-01</leafValues></_>
        <_>
          <internalNodes>
            0 -1 34 1.0744773317128420e-04</internalNodes>
          <leafValues>
            -6.5798568725585938e-01 3.0182355642318726e-01</leafValues></_>
        <_>
          <internalNodes>
            0 -1 18 -4.3393284431658685e-04</internalNodes>
          <leafValues>
            4.7343945503234863e-01 -4.2498338222503662e-01</leafValues></_>
        <_>
          <internalNodes>
            0 -1 37 7.3322851676493883e-04</internalNodes>
          <leafValues>
            -4.5201906561851501e-01 4.0040844678878784e-01</leafValues></_>
        <_>
          <internalNodes>
            0 -1 38 -1.3036361197009683e-03</internalNodes>
          <leafValues>
            4.6874728798866272e-01 -4.8957264423370361e-01</leafValues></_></weakClassifiers></_>
    <!-- stage 8 -->
    <_>
      <maxWeakCount>5</maxWeakCount>
      <stageThreshold>-1.6423556804656982e+00</stageThreshold>
      <weakClassifiers>
        <_>
          <internalNodes>
            0 -1 13 8.7430310249328613e-01</internalNodes>
          <leafValues>
            -9.1738712787628174e-01 5.5555558204650879e-01</leafValues></_>
        <_>
          <internalNodes>
            0 -1 42 -1.7225438728928566e-02</internalNodes>
          <leafValues>
            4.2570497840642929e-02 -7.1122014522552490e-01</leafValues></_>
        <_>
          <internalNodes>
            0 -1 47 -1.6347854398190975e-03</internalNodes>
          <leafValues>
            3.6891028285026550e-01 -4.8834300041198730e-01</leafValues></_>
        <_>
          <internalNodes>
            0 -1 9 4.2966296314261854e-04</internalNodes>
          <leafValues>
            2.5261706113815308e-01 -6.6220921277999878e-01</leafValues></_>
        <_>
          <internalNodes>
            0 -1 28 9.1267153620719910e-03</internalNodes>
          <leafValues>
            -4.5921880006790161e-01 3.8301309943199158e-01</leafValues></_></weakClassifiers></_>
    <!-- stage 9 -->
    <_>
      <maxWeakCount>5</maxWeakCount>
      <stageThreshold>-1.9195370674133301e+00</stageThreshold>
      <weakClassifiers>
        <_>
          <internalNodes>
            0 -1 50 -1.6661681234836578e-02</internalNodes>
          <leafValues>
            7.5000000000000000e-01 -9.1746640205383301e-01</leafValues></_>
        <_>
          <internalNodes>
            0 -1 55 -6.2546797562390566e-04</internalNodes>
          <leafValues>
            -9.6434664726257324e-01 -3.7466302514076233e-01</leafValues></_>
        <_>
          <internalNodes>
            0 -1 3 -9.2965539079159498e-04</internalNodes>
          <leafValues>
            -9.0220105648040771e-01 6.2971167266368866e-02</leafValues></_>
        <_>
          <internalNodes>
            0 -1 51 1.7949112225323915e-03</internalNodes>
          <leafValues>
            1.3543650507926941e-01 -9.7560614347457886e-01</leafValues></_>
        <_>
          <internalNodes>
            0 -1 6 5.1904186606407166e-02</internalNodes>
          <leafValues>
            1.3935691118240356e-01 -8.1023472547531128e-01</leafValues></_></weakClassifiers></_>
    <!-- stage 10 -->
    <_>
      <maxWeakCount>6</maxWeakCount>
      <stageThreshold>-1.8336058855056763e+00</stageThreshold>
      <weakClassifiers>
        <_>
          <internalNodes>
            0 -1 24 -1.9802199676632881e-02</internalNodes>
          <leafValues>
            5.0000000000000000e-01 -9.1554701328277588e-01</leafValues></_>
        <_>
          <internalNodes>
            0 -1 36 -5.5629480630159378e-03</internalNodes>
          <leafValues>
            -9.2612400650978088e-02 -7.2537344694137573e-01</leafValues></_>
        <_>
          <internalNodes>
            0 -1 45 -1.0104081593453884e-04</internalNodes>
          <leafValues>
            1.6037443280220032e-01 -6.4540237188339233e-01</leafValues></_>
        <_>
          <internalNodes>
            0 -1 40 2.5663734413683414e-04</internalNodes>
          <leafValues>
            -4.5862561464309692e-01 3.9177116751670837e-01</leafValues></_>
        <_>
          <internalNodes>
            0 -1 11 -1.9638999947346747e-04</internalNodes>
          <leafValues>
            -8.9185363054275513e-01 1.6929936408996582e-01</leafValues></_>
        <_>
          <internalNodes>
            0 -1 15 2.1854467689990997e-02</internalNodes>
          <leafValues>
            1.9781456887722015e-01 -7.4111461639404297e-01</leafValues></_></weakClassifiers></_>
    <!-- stage 11 -->
    <_>
      <maxWeakCount>4</maxWeakCount>
      <stageThreshold>-1.5670596361160278e+00</stageThreshold>
      <weakClassifiers>
        <_>
          <internalNodes>
            0 -1 43 -3.9780423045158386e-02</internalNodes>
          <leafValues>
            6.6666668653488159e-01 -9.1379308700561523e-01</leafValues></_>
        <_>
          <internalNodes>
            0 -1 21 -2.4132975377142429e-03</internalNodes>
          <leafValues>
            -7.9982292652130127e-01 -1.9423758983612061e-01</leafValues></_>
        <_>
          <internalNodes>
            0 -1 30 -1.0409740731120110e-02</internalNodes>
          <leafValues>
            -9.4282454252243042e-01 5.8620069175958633e-02</leafValues></_>
        <_>
          <internalNodes>
            0 -1 19 -3.7205437547527254e-04</internalNodes>
          <leafValues>
            -1. 8.7936371564865112e-02</leafValues></_></weakClassifiers></_></stages>
  <features>
    <_>
      <rects>
        <_>
          0 0 24 20 -1.</_>
        <_>
          8 0 8 20 3.</_></rects>
      <tilted>0</tilted></_>
    <_>
      <rects>
        <_>
          0 0 24 23 -1.</_>
        <_>
          8 0 8 23 3.</_></rects>
      <tilted>0</tilted></_>
    <_>
      <rects>
        <_>
          0 1 1 3 -1.</_>
        <_>
          0 2 1 1 3.</_></rects>
      <tilted>0</tilted></_>
    <_>
      <rects>
        <_>
          0 1 1 6 -1.</_>
        <_>
          0 4 1 3 2.</_></rects>
      <tilted>0</tilted></_>
    <_>
      <rects>
        <_>
          0 1 24 3 -1.</_>
        <_>
          8 1 8 3 3.</_></rects>
      <tilted>0</tilted></_>
    <_>
      <rects>
        <_>
          0 2 24 19 -1.</_>
        <_>
          8 2 8 19 3.</_></rects>
      <tilted>0</tilted></_>
    <_>
      <rects>
        <_>
          0 2 24 5 -1.</_>
        <_>
          12 2 12 5 2.</_></rects>
      <tilted>0</tilted></_>
    <_>
      <rects>
        <_>
          0 9 24 15 -1.</_>
        <_>
          8 9 8 15 3.</_></rects>
      <tilted>0</tilted></_>
    <_>
      <rects>
        <_>
          0 11 2 4 -1.</_>
        <_>
          0 11 1 2 2.</_>
        <_>
          1 13 1 2 2.</_></rects>
      <tilted>0</tilted></_>
    <_>
      <rects>
        <_>
          0 11 4 6 -1.</_>
        <_>
          0 13 4 2 3.</_></rects>
      <tilted>0</tilted></_>
    <_>
      <rects>
        <_>
          0 17 1 3 -1.</_>
        <_>
          0 18 1 1 3.</_></rects>
      <tilted>0</tilted></_>
    <_>
      <rects>
        <_>
          0 20 1 3 -1.</_>
        <_>
          0 21 1 1 3.</_></rects>
      <tilted>0</tilted></_>
    <_>
      <rects>
        <_>
          1 0 12 22 -1.</_>
        <_>
          7 0 6 22 2.</_></rects>
      <tilted>0</tilted></_>
    <_>
      <rects>
        <_>
          1 4 21 20 -1.</_>
        <_>
          8 4 7 20 3.</_></rects>
      <tilted>0</tilted></_>
    <_>
      <rects>
        <_>
          1 5 21 15 -1.</_>
        <_>
          8 5 7 15 3.</_></rects>
      <tilted>0</tilted></_>
    <_>
      <rects>
        <_>
          1 11 22 10 -1.</_>
        <_>
          1 11 11 5 2.</_>
        <_>
          12 16 11 5 2.</_></rects>
      <tilted>0</tilted></_>
    <_>
      <rects>
        <_>
          1 12 4 3 -1.</_>
        <_>
          1 13 4 1 3.</_></rects>
      <tilted>0</tilted></_>
    <_>
      <rects>
        <_>
          2 2 21 1 -1.</_>
        <_>
          9 2 7 1 3.</_></rects>
      <tilted>0</tilted></_>
    <_>
      <rects>
        <_>
          2 10 4 1 -1.</_>
        <_>
          4 10 2 1 2.</_></rects>
      <tilted>0</tilted></_>
    <_>
      <rects>
        <_>
          3 0 2 1 -1.</_>
        <_>
          4 0 1 1 2.</_></rects>
      <tilted>0</tilted></_>
    <_>
      <rects>
        <_>
          3 11 6 12 -1.</_>
        <_>
          3 11 3 6 2.</_>
        <_>
          6 17 3 6 2.</_></rects>
      <tilted>0</tilted></_>
    <_>
      <rects>
        <_>
          3 12 18 6 -1.</_>
        <_>
          3 12 9 3 2.</_>
        <_>
          12 15 9 3 2.</_></rects>
      <tilted>0</tilted></_>
    <_>
      <rects>
        <_>
          4 4 9 5 -1.</_>
        <_>
          7 4 3 5 3.</_></rects>
      <tilted>0</tilted></_>
    <_>
      <rects>
        <_>
          4 7 4 8 -1.</_>
        <_>
          6 7 2 8 2.</_></rects>
      <tilted>0</tilted></_>
    <_>
      <rects>
        <_>
          5 7 2 9 -1.</_>
        <_>
          6 7 1 9 2.</_></rects>
      <tilted>0</tilted></_>
    <_>
      <rects>
        <_>
          6 0 11 4 -1.</_>
        <_>
          6 2 11 2 2.</_></rects>
      <tilted>0</tilted></_>
    <_>
      <rects>
        <_>
          6 6 8 3 -1.</_>
        <_>
          10 6 4 3 2.</_></rects>
      <tilted>0</tilted></_>
    <_>
      <rects>
        <_>
          8 1 8 9 -1.</_>
        <_>
          8 4 8 3 3.</_></rects>
      <tilted>0</tilted></_>
    <_>
      <rects>
        <_>
          8 3 8 6 -1.</_>
        <_>
          8 5 8 2 3.</_></rects>
      <tilted>0</tilted></_>
    <_>
      <rects>
        <_>
          9 1 6 6 -1.</_>
        <_>
          9 4 6 3 2.</_></rects>
      <tilted>0</tilted></_>
    <_>
      <rects>
        <_>
          9 10 4 14 -1.</_>
        <_>
          9 10 2 7 2.</_>
        <_>
          11 17 2 7 2.</_></rects>
      <tilted>0</tilted></_>
    <_>
      <rects>
        <_>
          10 2 11 16 -1.</_>
        <_>
          10 10 11 8 2.</_></rects>
      <tilted>0</tilted></_>
    <_>
      <rects>
        <_>
          10 9 1 6 -1.</_>
        <_>
          10 11 1 2 3.</_></rects>
      <tilted>0</tilted></_>
    <_>
      <rects>
        <_>
          11 11 4 8 -1.</_>
        <_>
          11 15 4 4 2.</_></rects>
      <tilted>0</tilted></_>
    <_>
      <rects>
        <_>
          11 17 2 4 -1.</_>
        <_>
          11 17 1 2 2.</_>
        <_>
          12 19 1 2 2.</_></rects>
      <tilted>0</tilted></_>
    <_>
      <rects>
        <_>
          12 4 6 4 -1.</_>
        <_>
          14 4 2 4 3.</_></rects>
      <tilted>0</tilted></_>
    <_>
      <rects>
        <_>
          12 6 2 10 -1.</_>
        <_>
          13 6 1 10 2.</_></rects>
      <tilted>0</tilted></_>
    <_>
      <rects>
        <_>
          12 17 6 1 -1.</_>
        <_>
          14 17 2 1 3.</_></rects>
      <tilted>0</tilted></_>
    <_>
      <rects>
        <_>
          13 2 8 3 -1.</_>
        <_>
          13 3 8 1 3.</_></rects>
      <tilted>0</tilted></_>
    <_>
      <rects>
        <_>
          13 14 1 3 -1.</_>
        <_>
          13 15 1 1 3.</_></rects>
      <tilted>0</tilted></_>
    <_>
      <rects>
        <_>
          13 15 1 3 -1.</_>
        <_>
          13 16 1 1 3.</_></rects>
      <tilted>0</tilted></_>
    <_>
      <rects>
        <_>
          14 0 6 24 -1.</_>
        <_>
          14 8 6 8 3.</_></rects>
      <tilted>0</tilted></_>
    <_>
      <rects>
        <_>
          14 1 4 12 -1.</_>
        <_>
          14 1 2 6 2.</_>
        <_>
          16 7 2 6 2.</_></rects>
      <tilted>0</tilted></_>
    <_>
      <rects>
        <_>
          14 3 3 12 -1.</_>
        <_>
          15 3 1 12 3.</_></rects>
      <tilted>0</tilted></_>
    <_>
      <rects>
        <_>
          14 6 10 18 -1.</_>
        <_>
          19 6 5 18 2.</_></rects>
      <tilted>0</tilted></_>
    <_>
      <rects>
        <_>
          14 13 9 6 -1.</_>
        <_>
          14 15 9 2 3.</_></rects>
      <tilted>0</tilted></_>
    <_>
      <rects>
        <_>
          15 4 8 18 -1.</_>
        <_>
          19 4 4 18 2.</_></rects>
      <tilted>0</tilted></_>
    <_>
      <rects>
        <_>
          17 7 2 5 -1.</_>
        <_>
          18 7 1 5 2.</_></rects>
      <tilted>0</tilted></_>
    <_>
      <rects>
        <_>
          18 0 6 3 -1.</_>
        <_>
          18 1 6 1 3.</_></rects>
      <tilted>0</tilted></_>
    <_>
      <rects>
        <_>
          19 9 2 15 -1.</_>
        <_>
          20 9 1 15 2.</_></rects>
      <tilted>0</tilted></_>
    <_>
      <rects>
        <_>
          20 5 3 5 -1.</_>
        <_>
          21 5 1 5 3.</_></rects>
      <tilted>0</tilted></_>
    <_>
      <rects>
        <_>
          20 19 4 4 -1.</_>
        <_>
          20 21 4 2 2.</_></rects>
      <tilted>0</tilted></_>
    <_>
      <rects>
        <_>
          21 18 3 3 -1.</_>
        <_>
          22 18 1 3 3.</_></rects>
      <tilted>0</tilted></_>
    <_>
      <rects>
        <_>
          22 2 2 2 -1.</_>
        <_>
          22 2 1 1 2.</_>
        <_>
          23 3 1 1 2.</_></rects>
      <tilted>0</tilted></_>
    <_>
      <rects>
        <_>
          22 11 2 3 -1.</_>
        <_>
          22 12 2 1 3.</_></rects>
      <tilted>0</tilted></_>
    <_>
      <rects>
        <_>
          23 0 1 6 -1.</_>
        <_>
          23 2 1 2 3.</_></rects>
      <tilted>0</tilted></_>
    <_>
      <rects>
        <_>
          23 0 1 8 -1.</_>
        <_>
          23 4 1 4 2.</_></rects>
      <tilted>0</tilted></_></features></cascade>
</opencv_storage>
